-0.87057524336822300625726711587049067020416259765625,-6.03991286702652274698266410268843173980712890625,-1.2216576861981811585877721881843172013759613037109,1.9145492382556750232680542467278428375720977783203,-2.2156159455512209888183861039578914642333984375,0.69321492866912615138375031165196560323238372802734,0.51386022376581530490824434309615753591060638427734,4.24579716680796792616092716343700885772705078125,-7.585036835029004720354350865818560123443603515625,0.18489648556372506593703519683913327753543853759766,4.2428754378903663635469456494320183992385864257812,0.61090617767886956634981743263779208064079284667969,-4.6200804991923174469548030174337327480316162109375,2.1261784967732797468897842918522655963897705078125,-0.43894956036695642609402057132683694362640380859375,5.4623662893518503125278584775514900684356689453125,-6.950282482935758565645301132462918758392333984375,-3.3819448422918552132898639683844521641731262207031,-0.47377239286129441131478756688011344522237777709961,-5.8076002195808182904102068278007209300994873046875,0.91481810182154865707104818284278735518455505371094,-0.93694552495503646838415079400874674320220947265625,-0.84102206920004618506681026701699011027812957763672,-2.2376729891961719687287768465466797351837158203125,0.30579742260546050047764765622559934854507446289062,4.102507676516108148234707186929881572723388671875,-0.4595258318194758717645242995786247774958610534668,0.24237827702867686952004078193567693233489990234375,1.4866716610259602671106904381304048001766204833984,-1.5636627428731226796543296586605720221996307373047,0.19227006993517806177074191964493365958333015441895,3.0927337259655822698789506830507889389991760253906,0.938269614029440646163493511267006397247314453125,-2.7466988865511199335855962999630719423294067382812,1.4244333204026471406677956110797822475433349609375,0.062089132887707856878201084782631369307637214660645,-0.60244624181505368465394667509826831519603729248047,2.2611362598575026616742889018496498465538024902344,-0.41073796369936454997429109425866045057773590087891,-2.3409261624138126833827300288248807191848754882812,-0.10977010706990060484589122324905474670231342315674,4.1837176724116345027937313716392964124679565429688,1.1328457022579800916872727611917071044445037841797,1.1994842567304619951329414107021875679492950439453,-1.2385386543671672576749642757931724190711975097656,6.900474549633567988848881213925778865814208984375,-5.9018010314087092638146714307367801666259765625,0.31870736244173997198103620576148387044668197631836,-1.536109992416267999715273617766797542572021484375,0.11676960621611282009624233069189358502626419067383,-0.634614202846083941267352201975882053375244140625,-1.8558526653766893588226594147272408008575439453125,0.3178182417289630024015423259697854518890380859375,-3.7635205820474819660148568800650537014007568359375,-1.3404956303915824822325930654187686741352081298828,0.15905808733525678144715698181244079023599624633789,0.63409964827864562231241052359109744429588317871094,3.9757610856466447657453500141855329275131225585938,-1.6086194270749520907060059471405111253261566162109,-1.8453854479456195392117479059379547834396362304688,-1.3507185382429027775685881351819261908531188964844,1.0080308717737218593413217604393139481544494628906,1.8983855773421920432042497850488871335983276367188,1.4518492022677396136032257345505058765411376953125,-1.2303301584113679467691326863132417201995849609375,-2.28671987408730359447872615419328212738037109375,-0.51785770666904495929117047126055695116519927978516,4.8132591976057303995162328646983951330184936523438,-0.72091099573402450673142993764486163854598999023438,-0.26907853555758026731226095762394834309816360473633,-0.064379320259712269347573965205810964107513427734375,-0.056815953350232283047827053223954862914979457855225,-2.9810428761796567975750349432928487658500671386719,-1.5060810981798602448122892383253201842308044433594,-0.83527824111019810526812534590135328471660614013672,1.2549400848652618734035968373063951730728149414062,7.57214276702197963686558068729937076568603515625,-1.1870778819150882288369075467926450073719024658203,0.6742621949832976468997003394179046154022216796875,-1.6194069412595453183456584156374447047710418701172,-0.48729396151964948780133113359624985605478286743164,0.94632274417031914115483459681854583323001861572266,-0.51387529050990676804389067910960875451564788818359,2.4686436607405988219454684440279379487037658691406,3.2963742147315384656280912167858332395553588867188,1.1796711580496050952859832250396721065044403076172,0.44109913488981666862542851959005929529666900634766,-0.81612345459340984721308132066042162477970123291016,5.9408754469115701013492980564478784799575805664062,0.19928620066820226797155157782981405034661293029785,-3.3525016652010140028039586468366906046867370605469,-1.7940493079626123051895092430640943348407745361328,1.2383902902867147677312686937511898577213287353516,-1.1441073438752507041016315270098857581615447998047,0.20207464972642749656550620329653611406683921813965,-1.0593168083674291413132095840410329401493072509766,-1.2711423197947766539073199965059757232666015625,1.8296861269418842610434694506693631410598754882812,0.90856984165325760383069564340985380113124847412109,-2.4722225900648298058115415187785401940345764160156,-3.3814494776400314535180768871214240789413452148438,-4.20913196598059613506848108954727649688720703125,3.1721974682355460473104358243290334939956665039062,-2.6585251759956212147528731293277814984321594238281,0.40491628284495329026526633242610841989517211914062,-1.5723961961649988161582314205588772892951965332031,-4.06901710012494532975324545986950397491455078125,-0.46071783767436463863376161498308647423982620239258,3.78739730788094419722256134264171123504638671875,4.5534960245815856438866831013001501560211181640625,0.048271477795075221073339832855708664283156394958496,-2.0399817381856930609274058951996266841888427734375,0.67096777020769171606673353380756452679634094238281,2.6785941480872059727857958932872861623764038085938,-1.342507089503794048823692719452083110809326171875,0.43422961454721781260346347153245005756616592407227,0.83146684336108722668257087207166478037834167480469,-3.6690876427419323313472432346316054463386535644531,-2.8297031541936492615718634624499827623367309570312,-0.65617783065194168479195013787830248475074768066406,1.6137985862450552332347797346301376819610595703125,-6.2981661404999211839594863704405725002288818359375,-4.80443128945381658922997303307056427001953125,0.85799441164607859189317196069168858230113983154297,0.39758458776554078673015624190156813710927963256836,-2.282821933700905248088020016439259052276611328125,3.43464362547632617861381731927394866943359375,2.7283968570240331175114079087506979703903198242188,-1.8232513950733013619043276776210404932498931884766,0.14593500682493590336896716053161071613430976867676,2.0784415858258209475195599225116893649101257324219,0.051502820559192759308775322324436274357140064239502,-0.84934721379683808528682220639893785119056701660156,7.0882050852398341689308836066629737615585327148438,-1.1278624094219835694019593574921600520610809326172,0.83540115182987861874863710909266956150531768798828,-3.8325433142965801280865889566484838724136352539062,-3.665744720809595236232780735008418560028076171875,1.9125007116337207069278747439966537058353424072266,0.25181022276899733824961913342121988534927368164062,2.4214919940801253872564302582759410142898559570312,2.9607754276916087299298396828817203640937805175781,-0.80998081023544366008337647144799120724201202392578,-2.7370132514411809054877267044503241777420043945312,0.32526512357337517000743787320971023291349411010742,2.9830693547217448369224257476162165403366088867188,7.3591426250351874571720145468134433031082153320312,-1.1781641787301031509826998444623313844203948974609,4.4359382874107735617030812136363238096237182617188,-0.54544864669830472880818206249387003481388092041016,-0.1502123431207167125744916802432271651923656463623,-1.968979458284994876748896786011755466461181640625,4.7932829626317507987209864950273185968399047851562,1.5320159237652595241030439865426160395145416259766,-1.7356150162828500871370351887890137732028961181641,-1.4985533041724590219700985471718013286590576171875,-6.8674012602955825101957998413126915693283081054688,5.2059231306866333710559047176502645015716552734375,3.7054820566450747953979316662298515439033508300781,0.12638615031100966512589423018653178587555885314941,-0.80101782295333368022483000459033064544200897216797,5.244053686995062690812119399197399616241455078125,5.55948280999052002471216837875545024871826171875,-1.8005757343432660100290831906022503972053527832031,-1.5720821742316521962834485748317092657089233398438,-5.08616797547497156983808963559567928314208984375,-1.0347403734243338924159161251736804842948913574219,-4.412253269256300569622908369638025760650634765625,2.8246862386084301554944886447628960013389587402344,0.21707505265218013379424633058079052716493606567383,-2.4978624945833094450620137649821117520332336425781,0.15298925712584074410038681435253238305449485778809,5.0080532069605387945898655743803828954696655273438,-3.6783180600599703069519819109700620174407958984375,0.98087762488223728674086032697232440114021301269531,-3.9297668813438471069332535989815369248390197753906,7.5410464067115992037315663765184581279754638671875,-2.8167214278066179389270473620854318141937255859375,-2.7511646275813554929356996581191197037696838378906,8.7437731628969164177078710054047405719757080078125,2.2302712706747667148476921283872798085212707519531,-1.8229712432087965545690622093388810753822326660156,-5.3638084302320399032737441302742809057235717773438,6.219934260961498040387596120126545429229736328125,1.4750335894142532211503748840186744928359985351562,0.21238866358246066834425391789409331977367401123047,-1.8955208195191872722062953471322543919086456298828,-5.2147743927307583788888223352842032909393310546875,-8.253476461472235570226985146291553974151611328125,-0.36103008572875489035070017962425481528043746948242,0.053647554301055375147733172980224480852484703063965,3.6256162266103340030554136319551616907119750976562,0.28760778704751249756910169708135072141885757446289,0.10873402226966236150396127868589246645569801330566,0.36749525670874833016554816822463180869817733764648,1.3399073046874614423273897045874036848545074462891,0.51175373581951744128559766977559775114059448242188,-0.18342465392622631092933715990511700510978698730469,-2.50850953802113707524767960421741008758544921875,3.1405346977105237371574730786960572004318237304688,1.517584373810308306929073296487331390380859375,-0.63501132636768364836399314299342222511768341064453,-0.54928590249475173212800882538431324064731597900391,7.4677158463193906712263014924246817827224731445312,3.222749899183778410360901034437119960784912109375,-2.1747638378315188312228656286606565117835998535156,-0.0077321056667448862659286490384147327858954668045044,-2.0248714902954225713926916796481236815452575683594,0.54171514630058481554186755602131597697734832763672,0.27616325633626959135114020682522095739841461181641,2.3630155058238773158052481448976323008537292480469,-8.07239707352299973308618064038455486297607421875,3.3042651911627247685032671142835170030593872070312,4.588404990033442487629145034588873386383056640625,0.51270460905280523800087166819139383733272552490234,3.9297890870429670329144755669403821229934692382812,2.3623789192371100753575774433556944131851196289062,-1.9000061554998999291399286448722705245018005371094,2.6868502964744842564925875194603577256202697753906,-2.2147201955991966393355596665060147643089294433594,-0.30110423200428509948878286195395048707723617553711,-4.1041538856506045718219866103027015924453735351562,1.1708156499892288238129367528017610311508178710938,-6.62262172929103343221868271939456462860107421875,-0.458455697804058814881500438787043094635009765625,5.000913076574729387857587425969541072845458984375,-1.6067900293141552658937598607735708355903625488281,-3.7580669943823981071773232542909681797027587890625,-1.2221880427865494667116763594094663858413696289062,-0.092929790666197650828017629009991651400923728942871,0.29186208801783991573230991889431606978178024291992,-4.5588853696092339617962352349422872066497802734375,0.90690680514656496491454618080751970410346984863281,-0.83832394672066290475243022228823974728584289550781,-1.7661675961216858343760804928024299442768096923828,-3.7320516633155671470944980683270841836929321289062,-1.3168606897124304211388334806542843580245971679688,0.24270704870308665301870121311367256566882133483887,2.8010525188457715550782722857547923922538757324219,2.1276681254547264998677746916655451059341430664062,-2.0316911763853426897696863306919112801551818847656,-4.9943576710592347822625924891326576471328735351562,1.737949032534313431597183807753026485443115234375,-0.46874840051056254619510355041711591184139251708984,2.2293543281628909191738330264342948794364929199219,2.6219352234622759212356868374627083539962768554688,2.6528353227333707486934599728556349873542785644531,-2.5916152986247267264729998714756220579147338867188,-1.9276476858644033818279694969533011317253112792969,0.27731473553681085242317294614622369408607482910156,-5.702918752368777433048308012075722217559814453125,1.7451299513061653279066831601085141301155090332031,-2.1945065806854762158195626398082822561264038085938,-3.7546333603317845195590507501037791371345520019531,-2.7616502588011706542658885155105963349342346191406,-1.2624920641088239747773513954598456621170043945312,1.2305654558992811242745801791897974908351898193359,-1.0381296733552187738780503423186019062995910644531,-2.2176510011639538610950239672092720866203308105469,-1.4890951363708959664933217936777509748935699462891,-0.15334223049340983680011163414746988564729690551758,-0.023437971143261192991102959126692439895123243331909,-2.5855448342507765246978124196175485849380493164062,-3.49850153580724310131699894554913043975830078125,1.1301360752833014000628963913186453282833099365234,5.42915320140281210115063004195690155029296875,0.93086237027828100387694121309323236346244812011719,0.19321677105332385471214706740283872932195663452148,0.92640381250163161830357694270787760615348815917969,-7.04672615445014116630773060023784637451171875,-0.14718729045718539905074351281655253842473030090332,3.7671846745838371006698253040667623281478881835938,0.90253891324946944330065434769494459033012390136719,-2.1171873679409487500890918454388156533241271972656,-0.13582176985607793961996492271282477304339408874512,4.6361164622296566761860958649776875972747802734375,-0.18170627863286126224551253471872769296169281005859,-1.7259208194379946910146372829331085085868835449219,-2.1024150483088699381539754540426656603813171386719,2.1369805487612976158118271996499970555305480957031,-0.58368210671912978959596784989116713404655456542969,-1.5922870216849480673459993340657092630863189697266,-3.4189833459166307783050342550268396735191345214844,-3.7080816178597713062004004314076155424118041992188,2.7586334492292476916475152393104508519172668457031,-0.84633003790487770778838694241130724549293518066406,-7.0895334194478101252911983465310186147689819335938,3.8500902432930872443250791548052802681922912597656,1.5709818359259781761494423335534520447254180908203,-0.10342995762845928753304036717963754199445247650146,-1.9127318422738575076635925142909400165081024169922,4.3249639416954694937089698214549571275711059570312,-7.5031567667872121063510348903946578502655029296875,-1.4024191542311830183109577774303033947944641113281,4.2748417742238144895715323823282005832879804074764e-05,1.5415897302511136768288224629941396415233612060547,-0.17391087878295494184577307805739110335707664489746,-4.8022788365161188650631629570852965116500854492188,0.72673109311829231504731296809040941298007965087891,3.4070462350715251531596550194080919027328491210938,-2.1440155050344924525518308655591681599617004394531,-4.1497361649239525860366484266705811023712158203125,0.3946450293611068471655300982092740014195442199707,2.9737349900194414153986599558265879750251770019531,-0.43100481438906146358647220040438696742057800292969,-0.72354424747787926541775505029363557696342468261719,0.11850740915932495012086178576282691210508346557617,-1.5805792041696566929687151059624738991260528564453,-2.4320279458274791650751467386726289987564086914062,-1.4525682367491310476026455944520421326160430908203,0.12456769645206500207734734431141987442970275878906,-2.5891301541172411226909844117471948266029357910156,-0.91819042178592080727383972771349363029003143310547,1.3694330854940826025512023988994769752025604248047,-2.1326097375421300128550683439243584871292114257812,1.6820336922665166667911762488074600696563720703125,3.4530445199031150060875461349496617913246154785156,1.3154108687051675463663968912442214787006378173828,-3.9327561195383888836829555657459422945976257324219,-0.74570547190406744064716804132331162691116333007812,0.57069512912004738414140092572779394686222076416016,4.1243015680043688675482371763791888952255249023438,7.7769794342662157404788558778818696737289428710938,-1.7535503880638882989728699612896889448165893554688,-2.1235377316884789244966214027954265475273132324219,-5.4074835192808068384806574613321572542190551757812,-0.76949314609395069730624072690261527895927429199219,-2.9380886090645925712294683762593194842338562011719,2.3696498238692842441821539978263899683952331542969,0.1803868355850706817200546083768131211400032043457,-2.6386699068464953832346964190946891903877258300781,0.19159537201021265007128135948732960969209671020508,2.3291233455989117651085962279466912150382995605469,-1.5915139600515888496090610715327784419059753417969,0.25399185249027317334835629480949137359857559204102,-7.4522396610628165447565152135211974382400512695312,0.23773939647304867528454508374124998226761817932129,1.5573253010435965659752355350065045058727264404297,4.5811388361718377026932103035505861043930053710938,5.60768047488200949146630591712892055511474609375,-4.145085835432478660322885843925178050994873046875,5.2173215944194044624282469158060848712921142578125,0.51195590253788192391937172942562028765678405761719,1.7797416368296465893905633492977358400821685791016,-0.041153099327176749511192355157618294470012187957764,-5.7810577646132745854856693767942488193511962890625,-0.68857967991665958162883498516748659312725067138672,-3.1672006054356001136795839556725695729255676269531,-2.0133774695674349075602549419272691011428833007812,0.91994848812667895376904425575048662722110748291016,0.15635301622668679177863282347971107810735702514648,-0.063063929224492970559978743949613999575376510620117,-3.8069368003591637084070953278569504618644714355469,-1.2467318546076964214108784290147013962268829345703,-1.2028973032319860703154290604288689792156219482422,-5.5462208376725561365105932054575532674789428710938,-2.6093754636930603929556582443183287978172302246094,-1.3534776277840063762880618014605715870857238769531,-3.1688948376593306655024662177311256527900695800781,-1.1013649980473605438646700349636375904083251953125,0.75428195482434190477505353555898182094097137451172,-1.3804996287583490843786648838431574404239654541016,-4.5369847871359132440716166456695646047592163085938,0.0088284097758609420686370938824438781011849641799927,-0.8744108910690311375901728752069175243377685546875,0.73288288715128535599774295405950397253036499023438,0.39373377590572722350970025217975489795207977294922,-1.5248624288731487119719076872570440173149108886719,-0.20884040383363386417236995384882902726531028747559,0.027825368210468680307823063913019723258912563323975,2.2254247745717270490217742917593568563461303710938,-2.0134018245180720363407544937217608094215393066406,-2.5613428792853953908092989877332001924514770507812,-3.1090855104647672213502573868026956915855407714844,7.4971611246681613138775901461485773324966430664062,-1.3683197154312098930972751986701041460037231445312,-1.52931089132570008359834901057183742523193359375,-2.4295247172610361374722742766607552766799926757812,-1.3535908893381236595132577349431812763214111328125,3.569386425649877736532289418391883373260498046875,0.064629738107216991305215003649209393188357353210449,1.1914047731279588937525204528355970978736877441406,0.025637186841709520834786673049165983684360980987549,-2.4705666380677522298014991974923759698867797851562,1.1390635160351560983826857409439980983734130859375,-7.9867741791337971690722952189389616250991821289062,-0.50435359527672984913948539542616344988346099853516,2.3085498462694098442682388849789276719093322753906,2.0415918385742419793871249567018821835517883300781,-2.4301212901204158889356676809256896376609802246094,0.19743676810354135464642411079694284126162528991699,-3.8168873953919031372095105325570330023765563964844,2.2868422487348682992092108179349452257156372070312,-0.95387576545628649515862207408645190298557281494141,-2.3483863754892442265997942740796133875846862792969,-0.081596205849528632980671716268261661753058433532715,-2.9227305965269443355225575942313298583030700683594,-1.9956657851103165590700427856063470244407653808594,-2.2213454731871462577430520468624308705329895019531,-0.77421670259441288663992963847704231739044189453125,-0.668540351983036629235357395373284816741943359375,5.2895094309655084074961450824048370122909545898438,3.8524464147869683650071692682104185223579406738281,1.7091042175221233812010268593439832329750061035156,-6.3610393995337544126300599600654095411300659179688,-0.25424340821236784959680221618327777832746505737305,-1.9068794555215184960417218462680466473102569580078,-1.0378238451377945761322507678414694964885711669922,2.9699274512687070526339994103182107210159301757812,0.10544688279218127069380983584778732620179653167725,4.7724430014811982658784472732804715633392333984375,0.95265157895031393753271231616963632404804229736328,0.53254124982359352102889715752098709344863891601562,1.6722931968594296758823247728287242352962493896484,5.1637982484300177787872598855756223201751708984375,5.5086583335164123198524066538084298372268676757812,-1.1917917523951035985163571240263991057872772216797,0.074666697075094656810279047931544482707977294921875,-1.6491296319248098800613888670341111719608306884766,-3.1144525177258355341791684622876346111297607421875,5.3489051821813431430996388371568173170089721679688,-1.7963134889344578581926725746598094701766967773438,2.7712864050822059169831845792941749095916748046875,-0.20113107986926076486966508127807173877954483032227,0.053604502002710989472245017850582371465861797332764,2.1375038398277896867227809707401320338249206542969,-1.1214357792093414545320229080971330404281616210938,-3.2000665022464542808222631720127537846565246582031,-1.7076205395038277501384982315357774496078491210938,3.8148714931709948317006819706875830888748168945312,0.023837662145683224945713618581066839396953582763672,-4.1610311815333620444334883359260857105255126953125,5.0859167544855283793481248721946030855178833007812,-0.71433022079776531398920269566588103771209716796875,0.30860985679738744957845142380392644554376602172852,-2.88079907615105668128308025188744068145751953125,1.7002180739223740069121504348004236817359924316406,-2.3291683930191608986604023812105879187583923339844,-1.0817920455497198606309439128381200134754180908203,-0.70588682870689400949970604415284469723701477050781,0.56861073992888855332950015508686192333698272705078,4.401659438721509332026471383869647979736328125,-2.3152669457910728390004351240349933505058288574219,-3.8614017227491954642459859314840286970138549804688,-3.1081856011087767299727602221537381410598754882812,1.748874402065116129278976586647331714630126953125,-1.5622336588745191487959118603612296283245086669922,6.5018256655320962877908641530666500329971313476562,-0.0081298329478925630831032123069235240109264850616455,0.18360105073689472754416840416524792090058326721191,0.37636206967163121639430301001993939280509948730469,-0.80692726077256748951072040654253214597702026367188,1.3783276759111022791159939515637233853340148925781,2.0337644485371315639099520922172814607620239257812,2.5821344079696246787136715283850207924842834472656,0.42884658293490995895069772814167663455009460449219,-2.371947321675566655585498665459454059600830078125,2.4048592374867046039810247748391702771186828613281,8.37001418770790195367226260714232921600341796875,-13.733226729137447463813259673770517110824584960938,-7.9762143774182669986316795984748750925064086914062,2.32753147135480276119778864085674285888671875,-0.72615005437732904614023254907806403934955596923828,0.30312181624770540011581942962948232889175415039062,-0.20611889552602957742521994077833369374275207519531,5.9031642767996670428942707076203078031539916992188,-2.3938218799155119853594442247413098812103271484375,-1.8615553368179154070105596474604681134223937988281,-1.7564718652665929354839136067312210798263549804688,0.06866740256806494469010715420154156163334846496582,0.21328332474729158607651413603889523074030876159668,-1.6484349883375297718401952806743793189525604248047,1.1926348300054663287284029138390906155109405517578,1.5738867465973809256496451780549250543117523193359,-3.599878699763113587550833472050726413726806640625,-3.4870140162994056609591098094824701547622680664062,2.1098108412872411676630690635647624731063842773438,0.31744633241215314267691383065539412200450897216797,4.178327641786030000048413057811558246612548828125,-2.5561841769533315549267626920482143759727478027344,2.7919960263297718405794967111432924866676330566406,-1.6532869929621027971222702035447582602500915527344,0.91206421947116977921865554890246130526065826416016,1.5301103660966455244363260135287418961524963378906,1.7060739136536544613420574023621156811714172363281,8.37297810388355401300941593945026397705078125,7.6259099120391882209446521301288157701492309570312,-7.0446564886142457595497035072185099124908447265625,0.41871706558157645305939809077244717627763748168945,-0.060141006178117378810910054198757279664278030395508,1.7635194333973849278862644496257416903972625732422,4.9542035134087152314918967022094875574111938476562,-0.14819146811127698049048717621190007776021957397461,-1.5930679884341374386025336207239888608455657958984,2.2078762979982555769709051673999056220054626464844,-1.3447229587112479176624901811010204255580902099609,-2.9926060270381773520398382970597594976425170898438,-2.6884207585916382043933481327258050441741943359375,-1.1516794429766092910938368731876835227012634277344,-2.7152781721014944693592951807659119367599487304688,3.5153715037983781499519864155445247888565063476562,-8.015451019893529149840105674229562282562255859375,1.2650735943093545099458197000785730779170989990234,0.46279082376412827848355391324730589985847473144531,6.361190830998712186783450306393206119537353515625,-1.3954680156961833947804052513674832880496978759766,-5.2130571239637975011760318011511117219924926757812,-4.0973781459511444680288150266278535127639770507812,-3.5644071242587669345880385662894695997238159179688,-0.56442241964212247484766749039408750832080841064453,0.14204117716143771499304193639545701444149017333984,8.769954735049797278634287067689001560211181640625,-0.662308664960068682603377965278923511505126953125,0.18733845266723120337459818074421491473913192749023,4.4996773066634316862177911389153450727462768554688,3.0592160685080052040518694411730393767356872558594,3.5994885720716376376060452457750216126441955566406,-4.1359529549112954427414479141589254140853881835938,10.066025301662405055935778364073485136032104492188,0.56836050192132359093477589340182021260261535644531,-0.98540098143743048986209487338783219456672668457031,-0.67447254158989644601263080403441563248634338378906,4.7487311795658273538833782367873936891555786132812,0.89666418811710246750124042591778561472892761230469,-0.56901918649273031114432797039626166224479675292969,-2.2543312469924976504387359454995021224021911621094,1.2590137236566290024342151809833012521266937255859,-2.4936440358155120833316686912439763545989990234375,-6.4897554175283174160426824528258293867111206054688,-0.16937795675040712151115940287127159535884857177734,7.2805863670360428940853125823196023702621459960938,2.3788357065986556193593060015700757503509521484375,0.36941888262752842209124537475872784852981567382812,-1.4029810498532246931802092149155214428901672363281,-5.5679276499376397779883518524002283811569213867188,-5.7764438652581704403132789593655616044998168945312,2.1462314558210446868713461299194023013114929199219,-4.2216116512392876103376693208701908588409423828125,-4.1692368606867358238332599285058677196502685546875,6.3918179689440766111374614411033689975738525390625,3.3895439723889433381032176839653402566909790039062,-0.57573164151128441989868633754667825996875762939453,5.111090958801906225517086568288505077362060546875,3.36941901082247596832530689425766468048095703125,-1.8903462298348689962779189954744651913642883300781,0.15189201489550346879653375253838021308183670043945,3.5047401780472129395604952151188626885414123535156,0.53897435015022976401155574421864002943038940429688,2.999656888699849588419965584762394428253173828125,8.21822405963670377104790532030165195465087890625,0.14350253244133698293794054734462406486272811889648,9.024966331814521680598772945813834667205810546875,-2.6428968622043620406714126147562637925148010253906,2.0226713251230830081794920261017978191375732421875,0.82041723030173219211036439446615986526012420654297,5.8162249927644387170744266768451780080795288085938,0.98904492412892086594666807286557741463184356689453,-0.76203059905201497858939774232567287981510162353516,-0.3236780354723539088190875645523192360997200012207,-0.21924848703461996546337786639924161136150360107422,0.54468273924739929459093445984763093292713165283203,-3.9085273884630309382259838457684963941574096679688,-0.49475415130421190879062010026245843619108200073242,-4.1360217670953280943990648665931075811386108398438,0.99134298386957564463983771929633803665637969970703,-4.040473434551838494144249125383794307708740234375,0.52540183980107502126344343196251429617404937744141,1.9112411167398246636395242603612132370471954345703,0.82650413181951309926631665803142823278903961181641,0.1655858081175946294738565711668343283236026763916,4.0665090369316185814341224613599479198455810546875,-0.40190194520763022900666783243650570511817932128906,5.8938303095257937869178022083360701799392700195312,-0.67726606399125377500070044334279373288154602050781,-9.5315201947453491726491847657598555088043212890625,2.6525820740564309829778721905313432216644287109375,5.6529235590408237754900255822576582431793212890625,6.2939420162838661809701079619117081165313720703125,1.9952632156649561245842505741165950894355773925781,-7.8793049198913562847224056895356625318527221679688,-3.8759961167781229463003001001197844743728637695312,2.2842266733346949791894076042808592319488525390625,-8.351039857688466128138315980322659015655517578125,5.1958765935388750989432082860730588436126708984375,-9.613822457213860417368778144009411334991455078125,-1.6355366981079655364084146640379913151264190673828,8.2068635411684311975477612577378749847412109375,7.2910811774820478703418302757199853658676147460938,-0.31027751923892699092988323172903619706630706787109,-1.4092895906608113865132736464147455990314483642578,0.043961949820820613032967827393804327584803104400635,4.5703291276460138448101133690215647220611572265625,-3.62982164809356078194468864239752292633056640625,-7.8540838394426630841849146236199885606765747070312,4.0868663140060936811437386495526880025863647460938,-2.7397742663147810482371369289467111229896545410156,-2.4551870724558102487833366467384621500968933105469,6.7917516815330669643913097388576716184616088867188,-0.22088807951295713616346461094508413225412368774414,-0.60761398959176293743666974478401243686676025390625,0.10678562193468683905184235527485725469887256622314,0.48567642037952057920691117942624259740114212036133,-5.2032454889785668683543917723000049591064453125,-0.69629132707075802599661074054893106222152709960938,0.33490374927869182020145899514318443834781646728516,-0.80161098736812907983306786263710819184780120849609,1.0310461648011111090994518235675059258937835693359,2.7708661013652937654683228174690157175064086914062,-0.045307118273614263581627881194435758516192436218262,0.27670010337126049737577204723493196070194244384766,-7.279141610487922520178472041152417659759521484375,-0.074442771907945945453199954044976038858294486999512,0.80275256891040436268980329259647987782955169677734,1.7823715740765626591723957972135394811630249023438,0.81764590920952018304745934074162505567073822021484,-0.51467661204736703250972595924395136535167694091797,-1.9380263509418442779974611767102032899856567382812,6.9089285293379143482184190361294895410537719726562,0.29197096313799486555495832362794317305088043212891,4.5125194726697506197865550348069518804550170898438,-0.81826665823187683113104640142410062253475189208984,2.9795246716315948454223416774766519665718078613281,-5.1771817648345299645029626844916492700576782226562,3.8215688622236552163258238579146564006805419921875,-2.1072778931435980354081038967706263065338134765625,-0.66373887146395571523527223689598031342029571533203,4.3039175188506932911991498258430510759353637695312,3.8071057592624000243120008235564455389976501464844,-1.3500023948966373144031649644603021442890167236328,-4.151703502529844769242117763496935367584228515625,0.26183720001887389461359134656959213316440582275391,-3.439525870128630202771091717295348644256591796875,0.4393434961064056065715988097508670762181282043457,0.81934154918302770642668519940343685448169708251953,9.2014024878351978742330175009556114673614501953125,-1.9757164223650336420945450299768708646297454833984,-1.7627419846039791284653119873837567865848541259766,6.5819343475533909071373273036442697048187255859375,-0.54822672164072383527155807314557023346424102783203,0.62107772023919238790767849422991275787353515625,0.10608849489950547551053716688329586759209632873535,6.6827495524710522900591058714780956506729125976562,-5.9318091018626164512284049123991280794143676757812,-0.70223002440322324080312910155043937265872955322266,-0.43916666457608954932112510505248792469501495361328,0.80775898789047440029520430471166037023067474365234,1.9884701985449471095535045606084167957305908203125,2.5230169356706939609580331307370215654373168945312,-5.3628975270711318756866603507660329341888427734375,0.025299782618636721537308531537746603135019540786743,2.2735775126919359756527683202875778079032897949219,-0.4710169189805537004467339556867955252528190612793,-2.1869612220473908514861705043585970997810363769531,-0.4436102619291205084728346719202818349003791809082,2.1913124446414271595529044134309515357017517089844,-3.2360843700951908985530280915554612874984741210938,1.5169935097334490414766605681506916880607604980469,-1.5408445843232192462579632774577476084232330322266,-0.91281406073026549741200597054557874798774719238281,-2.2572223692859005872435318451607599854469299316406,-0.70751705909870266086869605715037323534488677978516,-1.7756898453396223747091653422103263437747955322266,1.1839792836200908610067017434630542993545532226562,0.41209490833084760907922827755101025104522705078125,-0.86887290516441695320537519364734180271625518798828,1.3226329526145728099351117634796537458896636962891,-0.026013420136078071326357630255188269075006246566772,-2.6443771070026667047159207868389785289764404296875,-4.412324375084978100858279503881931304931640625,0.98511382382947887403901177094667218625545501708984,0.075035474446215250088343395873380359262228012084961,-2.9856263312579915947253539343364536762237548828125,1.5594207739217791353070197146735154092311859130859,-1.1968375323913380547935503273038193583488464355469,-0.60535746770681686523829512225347571074962615966797,1.5306095679019915412055752312880940735340118408203,-1.6512163207455059499295657587936148047447204589844,1.4260716711871388451271513986284844577312469482422,-1.9756762940032439601623082126025110483169555664062,-1.3525968534710615109872833272675052285194396972656,0.23836832160769627630969580422970466315746307373047,2.7288726265951113170160624576965346932411193847656,-4.0140838649270440541272364498581737279891967773438,7.60737110090284573971075587905943393707275390625,6.8384383074047621065005841956008225679397583007812,-6.0382283231642359666579977783840149641036987304688,7.0951144891523885149808847927488386631011962890625,8.3184573507083481302970540127716958522796630859375,-1.930057682111677053171661100350320339202880859375,-10.1698488135226199347016518004238605499267578125,-2.4187055698162822636732016690075397491455078125,2.6679813963003584653677080495981499552726745605469,-0.79997883000688541077494164710515178740024566650391,5.581765083996724996495686355046927928924560546875,-7.560172010544267351406233501620590686798095703125,4.9195317981162904885650277719832956790924072265625,5.8934926509638438929528092558030039072036743164062,-3.8342700429931797501126311544794589281082153320312,0.97937402440472698383899796681362204253673553466797,7.8279980668228876794501047697849571704864501953125,-12.03302024374287526597981923259794712066650390625,-11.458941333154639252711604058276861906051635742188,-2.0458474030408528854252381279366090893745422363281,-1.5537928296668301886285235013929195702075958251953,-7.7760611526225060785577625210862606763839721679688,-8.7606286105443142986359816859476268291473388671875,7.7479209938384911993125570006668567657470703125,0.11892359858187249999073031858642934821546077728271,-0.54108285992576943268517197793698869645595550537109,-0.10081434190399114758651677448142436333000659942627,-4.617429443574881275935695157386362552642822265625,-13.51575686184497726571862585842609405517578125,5.4068612217000842079528410977218300104141235351562,5.8704027569468859582002551178447902202606201171875,4.1795301076294162356816741521470248699188232421875,4.6915265275790698495939068379811942577362060546875,7.9409846400223802476148193818517029285430908203125,5.7759403990135078643675115017686039209365844726562,7.0725450798326372492397240421269088983535766601562,-2.484314109387273816764718503691256046295166015625,-2.4657250545051043744138041802216321229934692382812,7.3153705133202162613770269672386348247528076171875,3.92118610102141929019126109778881072998046875,4.455154849059368871166952885687351226806640625,-5.0164591282588171239353869168553501367568969726562,5.959996195771491755976967397145926952362060546875,6.999533509619919158240008982829749584197998046875,-1.932210447599903346826977212913334369659423828125,6.0014792286014797539905885059852153062820434570312,8.394397830372515301178282243199646472930908203125,-4.8124013924638449068993395485449582338333129882812,6.4546476973672648469460000342223793268203735351562,6.883216956240968187330508953891694545745849609375,-2.97425040726512435185213689692318439483642578125,-8.834193258038784080099503626115620136260986328125,8.872981791832739162373400176875293254852294921875,14.949022778397532462690833199303597211837768554688,7.9074969664374039624021861527580767869949340820312,-15.67439491436893916898043244145810604095458984375,16.09630310860182333954071509651839733123779296875,17.602264544684327773893528501503169536590576171875,-8.7111916405787095385448992601595818996429443359375,-5.2356178208224877224097326688934117555618286132812,3.1543686358860436591555753693683072924613952636719,11.12949670423056858226118492893874645233154296875,-7.6496063809776790876071572711225599050521850585938,2.0749497721128751237529286299832165241241455078125,16.721291581914993429336391272954642772674560546875,-9.8821484547047848678857917548157274723052978515625,-6.4327986106615115957652051292825490236282348632812,-4.051438748208187945465397206135094165802001953125,1.7589450882085140293042968551162630319595336914062,-13.442065599177794865681789815425872802734375,7.3338428320723512143786138040013611316680908203125,13.063705809210331310055153153371065855026245117188,2.0852739287731494322031267074635252356529235839844,9.1577182442114928306864385376684367656707763671875,-14.166449493419445815334256622008979320526123046875,5.2946867499452556771188938000705093145370483398438,-4.76437096258764114509176579304039478302001953125,-18.049650354372463567642626003362238407135009765625,8.8070605933894956507401730050332844257354736328125,4.8495822376093569161525920208077877759933471679688,-8.086010249048502629420909215696156024932861328125,8.55444106283886185337905772030353546142578125,7.2312127529347742793675024586264044046401977539062,-12.467153820726768032045583822764456272125244140625,6.0507089086616234752113996364641934633255004882812,6.0255109693247117519376843119971454143524169921875,-3.3833579738042014461996132013155147433280944824219,-0.022936047270895539712531885356838756706565618515015,-0.47888902755931961330304602597607299685478210449219,0.058859281309204515564292847784599871374666690826416,6.4310225880368241391238370852079242467880249023438,6.003251279433840181809500791132450103759765625,-4.4564048362050385776456096209585666656494140625,7.1186405387232918329232234100345522165298461914062,5.4987010038561319191785514703951776027679443359375,-6.137429697273812934099623817019164562225341796875,15.732740338184731498927249049302190542221069335938,10.936765066007748004039967781864106655120849609375,-7.8597144818206361449597352475393563508987426757812,-6.482969635523406992660966352559626102447509765625,-5.9680383185920415911596137448213994503021240234375,7.5378752348710156283573269320186227560043334960938,-12.354497351220862455534188484307378530502319335938,-3.8630748208040843749699888576287776231765747070312,2.4695574357980105695276051847031340003013610839844,-5.59880623200817950646523968316614627838134765625,-6.6754496262465599087931877875234931707382202148438,5.2591176395130849741121892293449491262435913085938,11.837460418614812240889477834571152925491333007812,-11.598285742279303534019163635093718767166137695312,5.12076159077495418614489608444273471832275390625,-5.990346939702266837457500514574348926544189453125,-4.2999352078897805640167462115641683340072631835938,6.5948680886522330624188725778367370367050170898438,1.715090885429628286829029093496501445770263671875,-7.2199959769433368350632918009068816900253295898438,3.8085900750608341347458463133079931139945983886719,0.043379846007769763682748731525862240232527256011963,0.46674590678331551174551350413821637630462646484375,0.1840139617434022878406096879189135506749153137207