4.0922739054505301581343701400328427553176879882812,0.017045203942173160760464867280461476184427738189697,-1.0063207227330037696333420171868056058883666992188,1.245438714163707771831468562595546245574951171875,5.359579870280715141461769235320389270782470703125,-1.9920654405525566321699670879752375185489654541016,2.2196053043999959264453991636401042342185974121094,3.3516213338453875181244256964419037103652954101562,2.0578654389105088817757405195152387022972106933594,-1.4551576366401808293460362619953230023384094238281,-1.802615632711809467991770361550152301788330078125,-2.2380556686081019002187986188801005482673645019531,2.835486134391207002636292600072920322418212890625,-0.97344994320144584420972933003213256597518920898438,-0.96131074845695552166802144711255095899105072021484,1.5529786384202113325159189116675406694412231445312,-0.64832839145031717631439960314310155808925628662109,0.049126014715929706977437518844453734345734119415283,2.5906804596702532883512049011187627911567687988281,-2.0119416679235366807176887959940358996391296386719,4.630972946034685122640439658425748348236083984375,-2.9145338979054797867718207271536812186241149902344,1.1809989227492472263492118145222775638103485107422,-6.0108334463420005633338405459653586149215698242188,2.7750618947295171423661486187484115362167358398438,5.6272099233140329133107115922030061483383178710938,3.1977778115882453668916696187807247042655944824219,-5.5895803611049057479931434500031173229217529296875,-4.3277803146422781921387468173634260892868041992188,-0.097318856984904431040028782717854483053088188171387,3.5501447976292608288417795847635716199874877929688,-7.85535053675206285106469294987618923187255859375,-1.0595208439337460148976788332220166921615600585938,-0.0012944093401493568691595914543768230942077934741974,-0.62571501404359486375739152208552695810794830322266,0.70583761075270301521555893486947752535343170166016,-1.8662499586572292020747454444062896072864532470703,-2.2736892724937707299659450654871761798858642578125,2.8833168910979698473795451718615368008613586425781,-0.76590810484861948648216412038891576230525970458984,3.8582413404207569485038220591377466917037963867188,2.6189262127865058360498551337514072656631469726562,-0.95626556956198605075059049340779893100261688232422,1.062240277361507168052412453107535839080810546875,0.98629322470810876222202523422311060130596160888672,3.9978523830437291408657074498478323221206665039062,-0.77299847871828009093775335713871754705905914306641,-0.20961947070590822295166333333327202126383781433105,0.14563391371801467921720529830054147168993949890137,-0.18267965383261686174165561169502325356006622314453,-1.0717860597219035501126427334384061396121978759766,1.2396520011958591656053840779350139200687408447266,1.83114340582618950747928465716540813446044921875,1.5375854560456529984691087520332075655460357666016,1.7480253898776232368561522889649495482444763183594,1.9579872939104392415288202755618840456008911132812,-0.030963157531673928674065265909121080767363309860229,3.4161386938824849224261015478987246751785278320312,0.086771980685446489789391932845319388434290885925293,-1.9361073624445102048241551528917625546455383300781,2.9362277364888438313528240541927516460418701171875,1.34538255810729623362931306473910808563232421875,0.96722793298606135614647882903227582573890686035156,1.2848654437717403897778467580792494118213653564453,-1.6451860467684196187576617376180365681648254394531,3.6542706067492312094202588923508301377296447753906,-0.2147632817355468459741274500629515387117862701416,4.7535371010481854980866955884266644716262817382812,-6.91573677600064939952062559314072132110595703125,1.5451853503278039081436645574285648763179779052734,2.2654000593631171689423808857100084424018859863281,-0.60498318308417886601802138102357275784015655517578,-1.5535952312525964646994225404341705143451690673828,-1.6244504273723474607749039932969026267528533935547,0.94804341114308898763596289427368901669979095458984,0.99691364081409061803640270227333530783653259277344,1.0073142075972094655611499547376297414302825927734,-0.076726992510519967383153527862305054441094398498535,-2.7227279567018003447742557909805327653884887695312,-2.6587558300567417646220746973995119333267211914062,-3.9048442764090776080365685629658401012420654296875,-0.024519694318641406527436998885605135001242160797119,3.8773671679458021621655916533200070261955261230469,4.880978403521364583639297052286565303802490234375,5.2061476270497086815680631843861192464828491210938,1.3207637478667508812435471554636023938655853271484,-0.1004473795095066068761013866605935618281364440918,0.59927593160200176569674113125074654817581176757812,0.41284574923575634297634451286285184323787689208984,5.2716479352440765993037530279252678155899047851562,-3.953829396505536664108149125240743160247802734375,5.9915777327153847409135778434574604034423828125,2.1002405972431055225513318873709067702293395996094,-1.3144812013772713132908620536909438669681549072266,1.8239432570390456955777835901244543492794036865234,-1.5653833303556552447588501308928243815898895263672,1.2982923450910037743710745417047291994094848632812,3.0464264441684547612965161533793434500694274902344,-4.1863906373529067295180539076682180166244506835938,2.6509669726679043755268594395602121949195861816406,-5.6927092424290091088323606527410447597503662109375,-3.8314818692978036551721743308007717132568359375,1.3181747403785617489546666547539643943309783935547,1.1600863807266577065746560037950985133647918701172,-5.8977678395908474939801635628100484609603881835938,-3.7635236492658905582686656998703256249427795410156,0.00051332221423925012207534201991165900835767388343811,-0.19281882892189564082663366662018233910202980041504,4.9279127749790863077805624925531446933746337890625,-2.8924002079385484620388524490408599376678466796875,2.278536915864055600877691176719963550567626953125,-1.3401376694793087906987238966394215822219848632812,-0.36308049302841954864007334435882512480020523071289,-5.7588942020982072378387783828657120466232299804688,0.16348715654979470435215205270651495084166526794434,-0.88355709806183935217660518901539035141468048095703,1.7290630991257436299690652958815917372703552246094,-3.2082064712926805505333049950422719120979309082031,-0.48878093543656803143804268074745777994394302368164,1.2050410643489646300707818227238021790981292724609,-1.9663906845692644687062511366093531250953674316406,0.22265509564760985194986631086067063733935356140137,-0.65448636262199810786910347815137356519699096679688,-3.4076286203893131343534150801133364439010620117188,-2.9962039773473176929030614701332524418830871582031,-2.2473770082210346998863315093331038951873779296875,-0.79270816901571461432496334964525885879993438720703,-5.3525644619088676989804298500530421733856201171875,2.1008766708440966830551133170956745743751525878906,-2.9249412118491227019489997474011033773422241210938,1.2345944657559162482840520169702358543872833251953,2.5373287635470176404339781583985313773155212402344,0.76848537099252867133003519484191201627254486083984,-1.1794975379578835905647338222479447722434997558594,2.7938610631666938033390579221304506063461303710938,-3.0988174408593751607554622751194983720779418945312,1.9565002270905995640504215771215967833995819091797,0.1737803922344628715368486382431001402437686920166,-9.96955009820042192814071313478052616119384765625,5.546144505145054637296198052354156970977783203125,-0.47804977775013496321676598199701402336359024047852,-0.34909320175720021106613444317190442234277725219727,-5.3668663641263529839875445759389549493789672851562,4.8062282460032141884198608750011771917343139648438,-2.8630735941770852903687227808404713869094848632812,-6.780397759774967170187665033154189586639404296875,-1.8114047179863324021908965733018703758716583251953,3.1007377667981663726948227122193202376365661621094,5.3252400916460613800040846399497240781784057617188,0.27885382424791832489674447970173787325620651245117,-2.2545153706431153572964376508025452494621276855469,0.18479509674371238925338900571659905835986137390137,-1.1924059095438963584712155352463014423847198486328,-0.81950750136269012724454796625650487840175628662109,0.069128197142669781105617232697113649919629096984863,0.011627432210303358106617821476902463473379611968994,-0.84410828180606101156513432215433567762374877929688,3.1537436999506538448656556283822283148765563964844,-5.3134526449957144578206680307630449533462524414062,-1.3020540256446355709130102695780806243419647216797,-4.4804043799543640247406983689870685338973999023438,-5.379313869566072270345102879218757152557373046875,-0.11815795418833895114030241302316426299512386322021,0.82548047181884753875635851727565750479698181152344,0.85240338978026852778668853716226294636726379394531,-0.36695757943669765621663714227906893938779830932617,-0.52943516456020178750918603327590972185134887695312,0.065593546555809123521640913168084807693958282470703,2.413752962584435834969553980045020580291748046875,-0.27445568531404274104090745822759345173835754394531,-0.051104575623068672352022900895462953485548496246338,1.6881182862124579635576537839369848370552062988281,4.3831611412505653291304952290374785661697387695312,1.4069416999381922916967369019403122365474700927734,2.3293724097561865349348408926744014024734497070312,-3.7231367038177940465004667203174903988838195800781,2.3165690419066566896333370095817372202873229980469,-0.32650341313458552949811064536334015429019927978516,-4.0221694879154776813834359927568584680557250976562,6.092856826392090141553126159124076366424560546875,-4.5326302540020071418780389649327844381332397460938,0.80697150751499069354366611150908283889293670654297,-1.786994496764176432179738185368478298187255859375,-0.10133864516915105924432793926825979724526405334473,-4.0222281424591157517056672077160328626632690429688,1.4097083490500164071335120752337388694286346435547,2.3653185972445056606261459819506853818893432617188,2.449128955512239969039001152850687503814697265625,-3.6614268747461546915644703403813764452934265136719,0.72287956503963501919685086249955929815769195556641,6.5873664674333758384250359085854142904281616210938,-0.64888572487266582555776039953343570232391357421875,-2.8131952602007084252022650616709142923355102539062,-0.3349597790711431599675051984377205371856689453125,-0.24403091318900510531264558267139364033937454223633,3.8503275435777082336130661133211106061935424804688,-0.77021397408429814746000374725554138422012329101562,-0.14770610858378263596790702649741433560848236083984,-2.1111305785803531342992300778860226273536682128906,-0.69096030402264052572292030163225717842578887939453,0.41558747893650560545353300767601467669010162353516,-1.82598152360855436882047797553241252899169921875,1.720896295530042863219932769425213336944580078125,-1.3416230689468611192438629586831666529178619384766,2.5913378050222868331786685303086414933204650878906,6.392845619218821440199462813325226306915283203125,-1.9707271245562067996104360645404085516929626464844,-6.03900213052646250844190944917500019073486328125,3.0155849888342145526110016362508758902549743652344,-0.18790332361594669352555797559034544974565505981445,0.071274793882073458894943485120165860280394554138184,-3.0432255562299115325686216237954795360565185546875,0.23905978651596621054054025989898946136236190795898,-4.4804181014430026763761816255282610654830932617188,-3.8842238896871603692773078364552929997444152832031,2.0898841398051652973322234174702316522598266601562,-2.2732030863703167611333810782525688409805297851562,-0.22915400259123952508844013209454715251922607421875,0.26793208457432970970302221758174709975719451904297,1.4122325709737555410328013749676756560802459716797,0.99495172200317649746637016505701467394828796386719,5.6793193652583493502561395871452987194061279296875,-0.2465155312749807425820591788578894920647144317627,-8.6448438067622959124491899274289608001708984375,1.07479088212050299944166908971965312957763671875,-0.28379843671689342077257833807379938662052154541016,-1.0235565790149376841355888245743699371814727783203,0.057703750018354045547841479901762795634567737579346,-5.0224986810164784500898349506314843893051147460938,-0.77575653163245306132012046873569488525390625,0.78476035993225312648036151585984043776988983154297,0.30655640087930718928888040863967034965753555297852,2.136908233308648874526625149883329868316650390625,-5.82708463125074871413744403980672359466552734375,-2.6674694406122663181690768396947532892227172851562,-2.5692340392005728055835334089351817965507507324219,-1.7167596454512310533147001478937454521656036376953,-2.5313281023465745711575891618849709630012512207031,-5.0591191745029933102273389522451907396316528320312,3.4824106174489726228671315766405314207077026367188,-2.6503095649467280914279854187043383717536926269531,4.5237299746476251627314013603609055280685424804688,-0.032631909138146335258579000537793035618960857391357,1.4945658309981701972191103777731768786907196044922,-2.7630664456613911461602128838421776890754699707031,5.2022159924577087153352294990327209234237670898438,-4.02974787203937268031950225122272968292236328125,-8.8262488015457005730013406719081103801727294921875,9.27318248085406793279616977088153362274169921875,-3.3131294962045498841973767412127926945686340332031,0.64314868748712072932249839141150005161762237548828,8.319717745482822834901526221074163913726806640625,0.84914501198812930571335755303152836859226226806641,2.2672672524735495436232213251059874892234802246094,2.8989210361294399653786513226805254817008972167969,3.6933663368180207342561516270507127046585083007812,3.5410584905757600537867801904212683439254760742188,-0.11767699623031958877650282602189690805971622467041,2.9796277176167658140570893010590225458145141601562,5.753920499278851963254055590368807315826416015625,-0.58796124768291835316347260231850668787956237792969,4.9014329839315395886956139293033629655838012695312,-6.026728940495164721369292237795889377593994140625,4.3459547632708828146519408619496971368789672851562,-4.9339716042295238551673719484824687242507934570312,-0.93632297915527140652613979909801855683326721191406,-4.0814601666958703063414759526494890451431274414062,4.4279936619610085202225491229910403490066528320312,1.6613618421560394367020307981874793767929077148438,-3.8266906044327999580900723231025040149688720703125,3.3216342315004836471814542164793238043785095214844,2.3215986301395461488539240235695615410804748535156,-0.46846166888371759684517314781260211020708084106445,1.8806118927614232649858649892848916351795196533203,2.6185358630318140704673623986309394240379333496094,-2.1760538288737616419155074254376813769340515136719,-0.38926355898732045712762328548706136643886566162109,-5.8582550773781827402331146004144102334976196289062,6.8745313038078164069588638085406273603439331054688,1.7407687263185414039412535203155130147933959960938,4.7901990165714867231372409150935709476470947265625,-0.24949364812842972360940052567457314580678939819336,-1.0960699254061236906920839828671887516975402832031,-1.13768008440441548145827255211770534515380859375,-1.3359804318077921347907022209255956113338470458984,0.84152754851438116290296420629601925611495971679688,-2.62520250313963288135710172355175018310546875,-0.005244853801285847411106644244682684075087308883667,0.80957998325490643232171805721009150147438049316406,1.0976197959129980752379651676164939999580383300781,-2.0629729613407516986001155601115897297859191894531,-4.8273353303710369033296956331469118595123291015625,-1.2016475505914223642633942290558479726314544677734,0.93246716388755801485643814885406754910945892333984,2.32319676505585448467172682285308837890625,-0.35363159687279266396586763221421279013156890869141,1.5202230771828502131626237314776517450809478759766,-2.9112206504232109871566080983029678463935852050781,-5.8175201185088472044526497484184801578521728515625,-1.2403430645218123107298424656619317829608917236328,-0.28222989574461193607035625063872430473566055297852,1.6713808255093864918450208278954960405826568603516,-0.50237489207068475316475542058469727635383605957031,2.9398553865465735235318334162002429366111755371094,5.7708167094346825010120483057107776403427124023438,-4.3582134262113196854215857456438243389129638671875,-1.3880061649618218311275086307432502508163452148438,3.4473265283773155687185862916521728038787841796875,-3.06384749060837435763460234738886356353759765625,-0.70048447733385710289866210587206296622753143310547,-1.1599304761711619615738300126395188271999359130859,-1.8618123645462441029252431690110825002193450927734,-0.13256483134149185665329184757865732535719871520996,1.9373233114616352779080443724524229764938354492188,-0.89799166053049805924501924891956150531768798828125,-6.5830730755208000104516941064503043889999389648438,1.6546483140746248707841914438176900148391723632812,-0.27305468433128676775112353425356559455394744873047,4.7293912008853693507148818753194063901901245117188,-4.7651551417540014554674598912242799997329711914062,-2.531109350326318008228554390370845794677734375,-0.78153768323884287294589512384845875203609466552734,-0.36177770522440982903233930301212240010499954223633,1.1688144255904231449960661848308518528938293457031,-1.2968834539986444642778451452613808214664459228516,-5.2278484222945307280383531178813427686691284179688,-0.13641230697533174298641256427799817174673080444336,8.428283839317732173412878182716667652130126953125,0.060655216926960749124209115734629449434578418731689,2.4433182705065670248245623952243477106094360351562,-0.72436502820918746703426904787193052470684051513672,-7.1731618943451653791498756618238985538482666015625,0.59913775063829310951746265345718711614608764648438,2.1184427142617794359580329910386353731155395507812,-0.011822645152110726474159463350588339380919933319092,7.4681251852508738764413465105462819337844848632812,-0.59913551627620464934409483248600736260414123535156,3.236690630000669699484205921180546283721923828125,-8.7287854448177828459165539243258535861968994140625,-3.0669640467150398599471827765228226780891418457031,-2.632368733756184298044900060631334781646728515625,4.6116755643068172432208484678994864225387573242188,2.389326389113392679064418189227581024169921875,3.8177987440897802606798450142377987504005432128906,2.6067680201047207511066972074331715703010559082031,-1.0229780867440820824043612446985207498073577880859,-0.26280879575505911027732963702874258160591125488281,-0.25212723638940198744862186686077620834112167358398,0.84314976150315756875386341562261804938316345214844,5.06952016049910270112377475015819072723388671875,1.2846742916687581281820484946365468204021453857422,-1.1674459091486946160642901304527185857295989990234,-1.3652952815829682009507450857199728488922119140625,1.6467623900980896678447606973350048065185546875,-1.1135480731458207159789708384778350591659545898438,1.2301567091878009563288287608884274959564208984375,7.1823754160169555049719747330527752637863159179688,1.3922091409137453688060759304789826273918151855469,0.067696495782521279305221639788214815780520439147949,-3.0312233357564206670531348208896815776824951171875,3.23076902228853413134856964461505413055419921875,-5.3468767862690480541232318500988185405731201171875,-0.94757276889012331810846490043331868946552276611328,3.9720075730776347455730501678772270679473876953125,-2.4957210281804345086698049271944910287857055664062,-2.1292050819462748911803373630391433835029602050781,8.21498128191843335343946819193661212921142578125,-0.047104179931867454222960134302411461248993873596191,-0.76045307316122368046507062899763695895671844482422,-1.3644403388286838740839357342338189482688903808594,0.90363660274762236390699854382546618580818176269531,-9.0306492306933332514518042444251477718353271484375,-5.13044739035257890691354987211525440216064453125,-2.6388614645819719051189622405217960476875305175781,5.1336929218189286672213711426593363285064697265625,3.6315833441401110803781193681061267852783203125,6.2997033587570427926038973964750766754150390625,-0.12795919084776488650057046925212489441037178039551,-3.0861694903864242967017617047531530261039733886719,-2.0141552091391727863367577811004593968391418457031,-2.9014272183735703158902197174029424786567687988281,4.0862753747681441751637976267375051975250244140625,-1.8068640223936163202722582354908809065818786621094,5.0923705024812084829477498715277761220932006835938,0.31395948518763749923721206869231536984443664550781,-2.8478425781004164107912401959765702486038208007812,3.463150187982837024947002646513283252716064453125,-0.82317185941282422501075188847607932984828948974609,1.7313764474267687720754338442930020391941070556641,6.7984952008347034890789473138283938169479370117188,0.92237066605557016529814973182510584592819213867188,-0.046392983654003697169265763022849569097161293029785,2.1898294919130858460221134009771049022674560546875,1.8531304923500784287426768059958703815937042236328,7.997657482315748467271987465210258960723876953125,-4.0359290558012093086404092900920659303665161132812,1.9473917367978246240056705573806539177894592285156,2.2743598305817251947757995367283001542091369628906,4.1981757592198247763803919951897114515304565429688,1.0449008616313328889901868024026043713092803955078,1.2406642930693343451764576457208022475242614746094,2.0551413344228595114770996588049456477165222167969,-0.72610931131616962552755012438865378499031066894531,-5.7667069620295015042188424558844417333602905273438,-4.53189988028606194347958080470561981201171875,1.0653434758901356715909969352651387453079223632812,-2.5085913367895242842564584861975163221359252929688,0.13241239431582396690600944566540420055389404296875,0.46331699449974189652934342120715882629156112670898,0.85983949934698256090115364713710732758045196533203,4.4184399419595816738137727952562272548675537109375,0.20929256553391376027839498874527635052800178527832,-1.3229661401660510744449084086227230727672576904297,-2.7148024625879338955769526364747434854507446289062,-5.5993393411743381804512864619027823209762573242188,3.4982929876331310126147400296758860349655151367188,-2.7567052332981627493779797077877447009086608886719,2.1838676919308128709928951138863340020179748535156,4.934436916581073973020465928129851818084716796875,3.4513302915171122364768052648287266492843627929688,0.14724842373353005942071547451632795855402946472168,1.4852698892380469253282626596046611666679382324219,-5.2978374424837237910423937137238681316375732421875,-8.2340706231489093624986708164215087890625,3.0092750105856129749781757709570229053497314453125,3.4883904468271986765159908827627077698707580566406,-6.2181523084859824379577730724122375249862670898438,-1.9160795548821529798999563354300335049629211425781,-1.5487681360052147905292940777144394814968109130859,2.2327493332500552014607819728553295135498046875,-1.0224796397183295582067330542486160993576049804688,1.3951656290373370961077625906909815967082977294922,5.3445226693101508530503451765980571508407592773438,5.2227174629143933159980406344402581453323364257812,-4.6862815226839398263791736098937690258026123046875,0.43225610318257090547433563187951222062110900878906,-6.659005291971421769403605139814317226409912109375,0.0023813232925811332260646047132013336522504687309265,-0.98987783094698822417001338180853053927421569824219,3.5165007990743069044015101098921149969100952148438,5.905276101153308587754509062506258487701416015625,0.64879367882327376726436796161578968167304992675781,-0.095339348893828945730177792938775382936000823974609,2.2282034386580544804701276007108390331268310546875,-1.1772070304047648203749076856183819472789764404297,-3.7095834301678771716126448154682293534278869628906,3.7787040883360614174080183147452771663665771484375,-3.0100376606540790724864109506597742438316345214844,1.0290090046767128573179661543690599501132965087891,-6.0741824063723930393621230905409902334213256835938,1.3961562630279960028900632096338085830211639404297,3.5511682403514979178282828797819092869758605957031,0.77886134786772254212650068438961170613765716552734,-4.187843159061852560398619971238076686859130859375,-5.5942180841764388432579835352953523397445678710938,1.0026480084683047078186746148276142776012420654297,-1.9323389419330141425490410256315954029560089111328,0.73027756808285715361961365488241426646709442138672,1.9130423470549926534545193135272711515426635742188,0.045735628877922845925141359657573048025369644165039,-3.3067635297613180433984325645724311470985412597656,-0.39646988314285092069866323072346858680248260498047,4.6262118736761976833804510533809661865234375,4.4414033892421267424310826754663139581680297851562,-1.8706683834515740461057475840789265930652618408203,-1.2418009213079763686238266018335707485675811767578,-1.1500749079583745260180194236454553902149200439453,-0.20526369061746788102773564332892419770359992980957,-4.3170918795519215294120840553659945726394653320312,-3.6914603203334137582203311467310413718223571777344,0.25745247891029188203049216099316254258155822753906,2.1423496662857099970267427124781534075736999511719,-2.1694526132919262906284529890399426221847534179688,-1.9695556314628952510048520707641728222370147705078,3.1651271395363638205822098825592547655105590820312,-0.72848028442612389188326460498501546680927276611328,-3.19851699228050989631810807622969150543212890625,0.4870014920895073262663288460316834971308708190918,2.9889701592224064974345765222096815705299377441406,-6.8272268422567430334879645670298486948013305664062,1.2899419689036444314211848904960788786411285400391,2.9581273627441011520033953274833038449287414550781,-3.6468581596180706938525872828904539346694946289062,2.201130979918136887363289133645594120025634765625,-1.8841379059754976843521490081911906599998474121094,1.7625035953187704329536700242897495627403259277344,-2.2290612303164270002753255539573729038238525390625,6.360469694080041591632834752090275287628173828125,-1.6283380032972047946060456524719484150409698486328,-2.0670896538603575898207509453641250729560852050781,2.621078247048554743514614528976380825042724609375,1.5462709791224600319736737219500355422496795654297,1.1815175080431667975489062882843427360057830810547,1.7642131742644460157265484667732380330562591552734,-0.73656126584183068128908189464709721505641937255859,-2.0793483293624936969479222170775756239891052246094,0.59639634175541955674049177105189301073551177978516,-0.0077183018103801070974867570839705877006053924560547,-4.7676074058416295642359727935399860143661499023438,-1.4452319878506896255743185975006781518459320068359,2.0515713285598704551659920980455353856086730957031,-0.95292436258253498948533888324163854122161865234375,-6.1277874371871723369054052454885095357894897460938,-4.9781461419651860111912355932872742414474487304688,-0.989029911110616666292116860859096050262451171875,-3.3127104721999720560177138395374640822410583496094,1.6898632621080975635408094603917561471462249755859,9.4360911048497353448283320176415145397186279296875,2.091075068044805362887927913106977939605712890625,-2.9945105006293126770344770193332806229591369628906,1.3752900791574607097800253541208803653717041015625,4.2870202199311950863602760364301502704620361328125,-4.7864265090501287858160139876417815685272216796875,5.4606043890740556534524330345448106527328491210938,5.7775889126196906531163222098257392644882202148438,-6.2918027121109521004882481065578758716583251953125,12.006286191103061611329394509084522724151611328125,15.697580683501801246393370092846453189849853515625,-12.215478462778174062464131566230207681655883789062,0.16966132420091153965024943772732513025403022766113,16.66146496063391424513611127622425556182861328125,-5.3962990962127532768022319942247122526168823242188,-0.36851496162164271153116601453803014010190963745117,-11.208644691709958252090473251882940530776977539062,7.884582874672279473315938957966864109039306640625,-14.07783082171182087449778919108211994171142578125,6.9292808369504621524015419709030538797378540039062,13.680905963097599098432510800193995237350463867188,-8.7825979624641217213820709730498492717742919921875,-4.870089237423751882261058199219405651092529296875,3.0005284815144905863348867569584399461746215820312,-3.5955632948914439950272026180755347013473510742188,5.30792594678955964582200977019965648651123046875,-6.3832834407509420060478078084997832775115966796875,1.2729113875218067697403512283926829695701599121094,-7.635606403522643859105301089584827423095703125,8.352547645014592347934012650512158870697021484375,7.1084572307908446830992943432647734880447387695312,1.1764937989883983426864233479136601090431213378906,-9.646269317201461745980850537307560443878173828125,3.8927023423274236257896063762018457055091857910156,5.0249603894740788589956537180114537477493286132812,-6.1546466497602496659169446502346545457839965820312,-6.6338259520868829710593672643881291151046752929688,-7.06177922524062040565695497207343578338623046875,9.0505507118540879929469156195409595966339111328125,10.750042622914204315520692034624516963958740234375,-7.3432100332022169908441355801187455654144287109375,0.53138142915725661286074910094612278044223785400391,2.4523217313440794917767107108375057578086853027344,3.4352617895777219914066336059477180242538452148438,-2.648293665918327377539753797464072704315185546875,-7.0324900463377035819689808704424649477005004882812,4.3446661368232515343379418482072651386260986328125,12.76889165451758145763960783369839191436767578125,5.399753843421962073989561758935451507568359375,3.8883933732709139441396928305039182305335998535156,-7.5898487531407585748866040376015007495880126953125,6.1555779935335932506745848513673990964889526367188,-4.6047606014992457090784228057600557804107666015625,9.1275388380544963951024328707717359066009521484375,-0.047068034854326916416322745817524264566600322723389,-0.055850930150005174967819954190417774952948093414307,-0.071807698859794918955223863576975418254733085632324,7.9951960822987642174553002405446022748947143554688,11.562327814890606347830726008396595716476440429688,-7.3120127279260378472258707915898412466049194335938,1.4235514432145663921147615837980993092060089111328,4.8536739956273207141634884465020149946212768554688,-3.1454616906980898960455306223593652248382568359375,11.05807254287302754391930648125708103179931640625,-5.1032135297213150337825027236249297857284545898438,-12.223404177592444241895464074332267045974731445312,-1.6102782424744277456341023935237899422645568847656,-1.3609677200803471652790221924078650772571563720703,3.4306143431350784034350454021478071808815002441406,5.92580392886247153683143551461398601531982421875,6.5458784419377389340866102429572492837905883789062,-2.85493456238334175623094779439270496368408203125,7.4969279433867512807410093955695629119873046875,5.4145763394932968637363046582322567701339721679688,1.3473423473115067050542847937322221696376800537109,-3.7229073594770429878053619177080690860748291015625,-4.7546498367609553170609615335706621408462524414062,4.4161593649299488717474559962283819913864135742188,2.7305716786062719236838347569573670625686645507812,5.0635037446163577712354708637576550245285034179688,-6.6792256201565995965552247071173042058944702148438,-4.5719987710212217635330489429179579019546508789062,8.499949825016425819512733141891658306121826171875,-8.8360740747343680112635411205701529979705810546875,4.4031023975282579385748249478638172149658203125,3.9894656669971015894304855464724823832511901855469,-4.82438635356631806416771723888814449310302734375,4.4493834542707437762487643340136855840682983398438,4.5919055636598207215115508006419986486434936523438,-0.34912051985293884870387159935489762574434280395508,-11.933164798041358878322171221952885389328002929688,-10.939781183735595604389345680829137563705444335938,8.5486367998970163029071045457385480403900146484375,-0.73961209601569932736708778975298628211021423339844,0.7509738526153970639143153675831854343414306640625,-0.43357311890829131062474743885104544460773468017578